<?xml version="1.0"?>
<opencv_storage>
<cascade>
  <stageType>BOOST</stageType>
  <featureType>HAAR</featureType>
  <height>20</height>
  <width>20</width>
  <stageParams>
    <boostType>GAB</boostType>
    <minHitRate>9.9500000476837158e-01</minHitRate>
    <maxFalseAlarm>5.0000000000000000e-01</maxFalseAlarm>
    <weightTrimRate>9.4999999999999996e-01</weightTrimRate>
    <maxDepth>1</maxDepth>
    <maxWeakCount>100</maxWeakCount></stageParams>
  <featureParams>
    <maxCatCount>0</maxCatCount>
    <featSize>1</featSize>
    <mode>BASIC</mode></featureParams>
  <stageNum>14</stageNum>
  <stages>
    <!-- stage 0 -->
    <_>
      <maxWeakCount>5</maxWeakCount>
      <stageThreshold>-7.1962225437164307e-01</stageThreshold>
      <weakClassifiers>
        <_>
          <internalNodes>
            0 -1 59 1.0199695825576782e-03</internalNodes>
          <leafValues>
            1.6031160950660706e-01 -9.3757802248001099e-01</leafValues></_>
        <_>
          <internalNodes>
            0 -1 59 -9.3288056086748838e-04</internalNodes>
          <leafValues>
            -9.5702844858169556e-01 2.6346328854560852e-01</leafValues></_>
        <_>
          <internalNodes>
            0 -1 70 4.2905632290057838e-04</internalNodes>
          <leafValues>
            1.4799638092517853e-01 -8.4735023975372314e-01</leafValues></_>
        <_>
          <internalNodes>
            0 -1 70 -5.9949676506221294e-04</internalNodes>
          <leafValues>
            -8.3830338716506958e-01 2.6644876599311829e-01</leafValues></_>
        <_>
          <internalNodes>
            0 -1 52 1.3303268700838089e-02</internalNodes>
          <leafValues>
            -2.7862933278083801e-01 7.6740157604217529e-01</leafValues></_></weakClassifiers></_>
    <!-- stage 1 -->
    <_>
      <maxWeakCount>4</maxWeakCount>
      <stageThreshold>-3.7206795811653137e-01</stageThreshold>
      <weakClassifiers>
        <_>
          <internalNodes>
            0 -1 51 -1.2387705035507679e-02</internalNodes>
          <leafValues>
            6.5866667032241821e-01 -3.4297189116477966e-01</leafValues></_>
        <_>
          <internalNodes>
            0 -1 61 3.6720000207424164e-02</internalNodes>
          <leafValues>
            -3.0935236811637878e-01 7.4057328701019287e-01</leafValues></_>
        <_>
          <internalNodes>
            0 -1 57 6.3736340962350368e-04</internalNodes>
          <leafValues>
            2.3070757091045380e-01 -9.2719984054565430e-01</leafValues></_>
        <_>
          <internalNodes>
            0 -1 57 -6.9097726373001933e-04</internalNodes>
          <leafValues>
            -9.5208978652954102e-01 2.5633412599563599e-01</leafValues></_></weakClassifiers></_>
    <!-- stage 2 -->
    <_>
      <maxWeakCount>4</maxWeakCount>
      <stageThreshold>-2.5809821486473083e-01</stageThreshold>
      <weakClassifiers>
        <_>
          <internalNodes>
            0 -1 53 6.7892834544181824e-02</internalNodes>
          <leafValues>
            -3.2165968418121338e-01 7.9119086265563965e-01</leafValues></_>
        <_>
          <internalNodes>
            0 -1 0 2.8820540755987167e-02</internalNodes>
          <leafValues>
            -2.9974809288978577e-01 7.9411566257476807e-01</leafValues></_>
        <_>
          <internalNodes>
            0 -1 35 -7.3498442769050598e-02</internalNodes>
          <leafValues>
            -9.6398544311523438e-01 2.1971736848354340e-01</leafValues></_>
        <_>
          <internalNodes>
            0 -1 12 5.3602408617734909e-02</internalNodes>
          <leafValues>
            2.3343127965927124e-01 -9.0884476900100708e-01</leafValues></_></weakClassifiers></_>
    <!-- stage 3 -->
    <_>
      <maxWeakCount>9</maxWeakCount>
      <stageThreshold>-1.0745044946670532e+00</stageThreshold>
      <weakClassifiers>
        <_>
          <internalNodes>
            0 -1 60 2.1789964288473129e-02</internalNodes>
          <leafValues>
            -3.2050788402557373e-01 7.3790949583053589e-01</leafValues></_>
        <_>
          <internalNodes>
            0 -1 37 -3.1026832759380341e-02</internalNodes>
          <leafValues>
            7.6818150281906128e-01 -3.6944520473480225e-01</leafValues></_>
        <_>
          <internalNodes>
            0 -1 40 2.8734451159834862e-02</internalNodes>
          <leafValues>
            2.2451020777225494e-01 -8.8948625326156616e-01</leafValues></_>
        <_>
          <internalNodes>
            0 -1 30 2.2935584187507629e-02</internalNodes>
          <leafValues>
            -2.4541030824184418e-01 6.7323690652847290e-01</leafValues></_>
        <_>
          <internalNodes>
            0 -1 29 -1.3030398637056351e-02</internalNodes>
          <leafValues>
            7.3160332441329956e-01 -2.7408745884895325e-01</leafValues></_>
        <_>
          <internalNodes>
            0 -1 46 -2.4220038205385208e-02</internalNodes>
          <leafValues>
            -9.1769391298294067e-01 2.3857401311397552e-01</leafValues></_>
        <_>
          <internalNodes>
            0 -1 10 -1.8323335796594620e-02</internalNodes>
          <leafValues>
            7.3465782403945923e-01 -3.0011665821075439e-01</leafValues></_>
        <_>
          <internalNodes>
            0 -1 2 2.0052440464496613e-02</internalNodes>
          <leafValues>
            -2.0518909394741058e-01 7.4610781669616699e-01</leafValues></_>
        <_>
          <internalNodes>
            0 -1 69 9.2872651293873787e-04</internalNodes>
          <leafValues>
            1.7716793715953827e-01 -9.4796574115753174e-01</leafValues></_></weakClassifiers></_>
    <!-- stage 4 -->
    <_>
      <maxWeakCount>6</maxWeakCount>
      <stageThreshold>-8.4959393739700317e-01</stageThreshold>
      <weakClassifiers>
        <_>
          <internalNodes>
            0 -1 67 -1.5330711612477899e-03</internalNodes>
          <leafValues>
            6.1492180824279785e-01 -3.6156082153320313e-01</leafValues></_>
        <_>
          <internalNodes>
            0 -1 67 1.9125144463032484e-03</internalNodes>
          <leafValues>
            -3.3883053064346313e-01 7.8639084100723267e-01</leafValues></_>
        <_>
          <internalNodes>
            0 -1 43 2.8145164251327515e-02</internalNodes>
          <leafValues>
            -1.8479354679584503e-01 6.8964850902557373e-01</leafValues></_>
        <_>
          <internalNodes>
            0 -1 62 -8.3043230697512627e-03</internalNodes>
          <leafValues>
            7.2995895147323608e-01 -3.3113995194435120e-01</leafValues></_>
        <_>
          <internalNodes>
            0 -1 13 2.7735907584428787e-02</internalNodes>
          <leafValues>
            -1.6203939914703369e-01 7.2704666852951050e-01</leafValues></_>
        <_>
          <internalNodes>
            0 -1 14 -1.1958364397287369e-02</internalNodes>
          <leafValues>
            7.5988787412643433e-01 -3.4567174315452576e-01</leafValues></_></weakClassifiers></_>
    <!-- stage 5 -->
    <_>
      <maxWeakCount>7</maxWeakCount>
      <stageThreshold>-1.1217560768127441e+00</stageThreshold>
      <weakClassifiers>
        <_>
          <internalNodes>
            0 -1 99 -1.3022704049944878e-02</internalNodes>
          <leafValues>
            7.0058137178421021e-01 -3.2993730902671814e-01</leafValues></_>
        <_>
          <internalNodes>
            0 -1 97 -5.7634953409433365e-03</internalNodes>
          <leafValues>
            7.1538388729095459e-01 -3.4081771969795227e-01</leafValues></_>
        <_>
          <internalNodes>
            0 -1 78 -1.1101474519819021e-03</internalNodes>
          <leafValues>
            -9.3133330345153809e-01 2.3086751997470856e-01</leafValues></_>
        <_>
          <internalNodes>
            0 -1 80 7.0166529621928930e-04</internalNodes>
          <leafValues>
            1.9733493030071259e-01 -9.3480658531188965e-01</leafValues></_>
        <_>
          <internalNodes>
            0 -1 89 3.0919324606657028e-02</internalNodes>
          <leafValues>
            -3.4030938148498535e-01 6.1104136705398560e-01</leafValues></_>
        <_>
          <internalNodes>
            0 -1 48 6.3080698251724243e-02</internalNodes>
          <leafValues>
            -2.7651900053024292e-01 6.8990337848663330e-01</leafValues></_>
        <_>
          <internalNodes>
            0 -1 1 5.3665157407522202e-02</internalNodes>
          <leafValues>
            -2.6237505674362183e-01 7.8133887052536011e-01</leafValues></_></weakClassifiers></_>
    <!-- stage 6 -->
    <_>
      <maxWeakCount>9</maxWeakCount>
      <stageThreshold>-7.6105695962905884e-01</stageThreshold>
      <weakClassifiers>
        <_>
          <internalNodes>
            0 -1 98 8.3565339446067810e-03</internalNodes>
          <leafValues>
            -3.4354305267333984e-01 5.7038837671279907e-01</leafValues></_>
        <_>
          <internalNodes>
            0 -1 97 -5.9013455174863338e-03</internalNodes>
          <leafValues>
            6.9234579801559448e-01 -3.5055619478225708e-01</leafValues></_>
        <_>
          <internalNodes>
            0 -1 49 1.0531727224588394e-01</internalNodes>
          <leafValues>
            -1.7919170856475830e-01 7.8493165969848633e-01</leafValues></_>
        <_>
          <internalNodes>
            0 -1 6 2.0306736230850220e-02</internalNodes>
          <leafValues>
            -2.3719242215156555e-01 7.5418287515640259e-01</leafValues></_>
        <_>
          <internalNodes>
            0 -1 65 1.0409085080027580e-03</internalNodes>
          <leafValues>
            2.1104681491851807e-01 -8.7293881177902222e-01</leafValues></_>
        <_>
          <internalNodes>
            0 -1 7 -1.9215688109397888e-02</internalNodes>
          <leafValues>
            6.4190441370010376e-01 -2.4019436538219452e-01</leafValues></_>
        <_>
          <internalNodes>
            0 -1 36 9.2698279768228531e-03</internalNodes>
          <leafValues>
            -2.6585265994071960e-01 6.2660783529281616e-01</leafValues></_>
        <_>
          <internalNodes>
            0 -1 65 -8.7514129700139165e-04</internalNodes>
          <leafValues>
            -7.8431707620620728e-01 2.1430690586566925e-01</leafValues></_>
        <_>
          <internalNodes>
            0 -1 22 1.0246481746435165e-02</internalNodes>
          <leafValues>
            -2.8192487359046936e-01 5.4022824764251709e-01</leafValues></_></weakClassifiers></_>
    <!-- stage 7 -->
    <_>
      <maxWeakCount>8</maxWeakCount>
      <stageThreshold>-7.4999356269836426e-01</stageThreshold>
      <weakClassifiers>
        <_>
          <internalNodes>
            0 -1 23 -1.8998008221387863e-02</internalNodes>
          <leafValues>
            6.4238411188125610e-01 -2.8376328945159912e-01</leafValues></_>
        <_>
          <internalNodes>
            0 -1 33 -2.0433131605386734e-02</internalNodes>
          <leafValues>
            6.1622500419616699e-01 -2.8956735134124756e-01</leafValues></_>
        <_>
          <internalNodes>
            0 -1 10 2.0502828061580658e-02</internalNodes>
          <leafValues>
            -1.8031914532184601e-01 7.1111744642257690e-01</leafValues></_>
        <_>
          <internalNodes>
            0 -1 11 5.8790892362594604e-03</internalNodes>
          <leafValues>
            -2.7690750360488892e-01 5.9332644939422607e-01</leafValues></_>
        <_>
          <internalNodes>
            0 -1 73 -7.8793615102767944e-04</internalNodes>
          <leafValues>
            -7.3672950267791748e-01 2.1715198457241058e-01</leafValues></_>
        <_>
          <internalNodes>
            0 -1 9 -1.2793221510946751e-02</internalNodes>
          <leafValues>
            7.1369493007659912e-01 -1.9696164131164551e-01</leafValues></_>
        <_>
          <internalNodes>
            0 -1 79 -1.4537722803652287e-02</internalNodes>
          <leafValues>
            6.2338972091674805e-01 -2.2820308804512024e-01</leafValues></_>
        <_>
          <internalNodes>
            0 -1 4 1.4100017026066780e-02</internalNodes>
          <leafValues>
            -2.4926485121250153e-01 5.7222402095794678e-01</leafValues></_></weakClassifiers></_>
    <!-- stage 8 -->
    <_>
      <maxWeakCount>10</maxWeakCount>
      <stageThreshold>-8.4412509202957153e-01</stageThreshold>
      <weakClassifiers>
        <_>
          <internalNodes>
            0 -1 71 1.0886102914810181e-02</internalNodes>
          <leafValues>
            -2.9245284199714661e-01 5.5172413587570190e-01</leafValues></_>
        <_>
          <internalNodes>
            0 -1 3 -1.3482052832841873e-02</internalNodes>
          <leafValues>
            6.8765562772750854e-01 -1.8569059669971466e-01</leafValues></_>
        <_>
          <internalNodes>
            0 -1 45 -2.9622055590152740e-02</internalNodes>
          <leafValues>
            5.1517701148986816e-01 -2.4313969910144806e-01</leafValues></_>
        <_>
          <internalNodes>
            0 -1 38 3.8850896060466766e-02</internalNodes>
          <leafValues>
            -2.6932325959205627e-01 5.3922206163406372e-01</leafValues></_>
        <_>
          <internalNodes>
            0 -1 72 7.9442001879215240e-04</internalNodes>
          <leafValues>
            1.8353249132633209e-01 -8.4955430030822754e-01</leafValues></_>
        <_>
          <internalNodes>
            0 -1 25 -1.7258632928133011e-02</internalNodes>
          <leafValues>
            -7.7021729946136475e-01 1.5609204769134521e-01</leafValues></_>
        <_>
          <internalNodes>
            0 -1 39 -2.1616065874695778e-02</internalNodes>
          <leafValues>
            -9.0462076663970947e-01 1.2932945787906647e-01</leafValues></_>
        <_>
          <internalNodes>
            0 -1 44 1.2721152976155281e-02</internalNodes>
          <leafValues>
            9.9586702883243561e-02 -8.6532014608383179e-01</leafValues></_>
        <_>
          <internalNodes>
            0 -1 81 1.9308419432491064e-03</internalNodes>
          <leafValues>
            -2.3558609187602997e-01 5.6250077486038208e-01</leafValues></_>
        <_>
          <internalNodes>
            0 -1 27 -2.6561284903436899e-03</internalNodes>
          <leafValues>
            -8.2373791933059692e-01 1.2962880730628967e-01</leafValues></_></weakClassifiers></_>
    <!-- stage 9 -->
    <_>
      <maxWeakCount>9</maxWeakCount>
      <stageThreshold>-9.0630960464477539e-01</stageThreshold>
      <weakClassifiers>
        <_>
          <internalNodes>
            0 -1 92 2.6538302190601826e-03</internalNodes>
          <leafValues>
            -2.9464286565780640e-01 4.7164949774742126e-01</leafValues></_>
        <_>
          <internalNodes>
            0 -1 82 -2.9362533241510391e-03</internalNodes>
          <leafValues>
            5.7137119770050049e-01 -2.2110064327716827e-01</leafValues></_>
        <_>
          <internalNodes>
            0 -1 82 2.4550976231694221e-03</internalNodes>
          <leafValues>
            -2.8528466820716858e-01 5.8176279067993164e-01</leafValues></_>
        <_>
          <internalNodes>
            0 -1 66 8.1785698421299458e-04</internalNodes>
          <leafValues>
            2.0361940562725067e-01 -7.6590490341186523e-01</leafValues></_>
        <_>
          <internalNodes>
            0 -1 27 3.2690220978111029e-03</internalNodes>
          <leafValues>
            1.2959825992584229e-01 -9.0287905931472778e-01</leafValues></_>
        <_>
          <internalNodes>
            0 -1 26 5.3238249383866787e-03</internalNodes>
          <leafValues>
            -2.1821427345275879e-01 5.2676886320114136e-01</leafValues></_>
        <_>
          <internalNodes>
            0 -1 50 -2.2851230576634407e-02</internalNodes>
          <leafValues>
            5.1651936769485474e-01 -3.7689614295959473e-01</leafValues></_>
        <_>
          <internalNodes>
            0 -1 85 1.1330619454383850e-02</internalNodes>
          <leafValues>
            -2.5158184766769409e-01 5.3113985061645508e-01</leafValues></_>
        <_>
          <internalNodes>
            0 -1 83 -5.3425505757331848e-03</internalNodes>
          <leafValues>
            5.8524560928344727e-01 -2.0007836818695068e-01</leafValues></_></weakClassifiers></_>
    <!-- stage 10 -->
    <_>
      <maxWeakCount>11</maxWeakCount>
      <stageThreshold>-8.5736405849456787e-01</stageThreshold>
      <weakClassifiers>
        <_>
          <internalNodes>
            0 -1 68 8.7936688214540482e-04</internalNodes>
          <leafValues>
            4.1085563600063324e-02 -7.9897785186767578e-01</leafValues></_>
        <_>
          <internalNodes>
            0 -1 68 -7.1765494067221880e-04</internalNodes>
          <leafValues>
            -7.1451723575592041e-01 1.4465096592903137e-01</leafValues></_>
        <_>
          <internalNodes>
            0 -1 93 3.3880649134516716e-03</internalNodes>
          <leafValues>
            -2.2362335026264191e-01 5.0963145494461060e-01</leafValues></_>
        <_>
          <internalNodes>
            0 -1 93 -2.3160111159086227e-03</internalNodes>
          <leafValues>
            5.1151835918426514e-01 -2.9592806100845337e-01</leafValues></_>
        <_>
          <internalNodes>
            0 -1 29 2.2932633757591248e-02</internalNodes>
          <leafValues>
            -1.2393020838499069e-01 6.6373401880264282e-01</leafValues></_>
        <_>
          <internalNodes>
            0 -1 17 1.9765086472034454e-02</internalNodes>
          <leafValues>
            -2.1398445963859558e-01 5.4354143142700195e-01</leafValues></_>
        <_>
          <internalNodes>
            0 -1 84 1.6193808987736702e-02</internalNodes>
          <leafValues>
            -1.6560368239879608e-01 5.9285742044448853e-01</leafValues></_>
        <_>
          <internalNodes>
            0 -1 86 5.4985890164971352e-03</internalNodes>
          <leafValues>
            -2.2130388021469116e-01 5.2466523647308350e-01</leafValues></_>
        <_>
          <internalNodes>
            0 -1 18 4.3499022722244263e-02</internalNodes>
          <leafValues>
            -2.3611848056316376e-01 5.2884811162948608e-01</leafValues></_>
        <_>
          <internalNodes>
            0 -1 63 -5.5356714874505997e-03</internalNodes>
          <leafValues>
            6.1480093002319336e-01 -2.1496103703975677e-01</leafValues></_>
        <_>
          <internalNodes>
            0 -1 75 -2.7064237743616104e-02</internalNodes>
          <leafValues>
            -9.0027827024459839e-01 1.5298241376876831e-01</leafValues></_></weakClassifiers></_>
    <!-- stage 11 -->
    <_>
      <maxWeakCount>10</maxWeakCount>
      <stageThreshold>-1.0334138870239258e+00</stageThreshold>
      <weakClassifiers>
        <_>
          <internalNodes>
            0 -1 15 1.7130866646766663e-02</internalNodes>
          <leafValues>
            -2.8975686430931091e-01 5.0205200910568237e-01</leafValues></_>
        <_>
          <internalNodes>
            0 -1 28 -3.2828964758664370e-03</internalNodes>
          <leafValues>
            5.0312077999114990e-01 -3.1106626987457275e-01</leafValues></_>
        <_>
          <internalNodes>
            0 -1 77 1.0318681597709656e-03</internalNodes>
          <leafValues>
            1.5035535395145416e-01 -8.4012764692306519e-01</leafValues></_>
        <_>
          <internalNodes>
            0 -1 90 1.6695791855454445e-02</internalNodes>
          <leafValues>
            1.3378591835498810e-01 -8.4347295761108398e-01</leafValues></_>
        <_>
          <internalNodes>
            0 -1 91 -1.2133364565670490e-02</internalNodes>
          <leafValues>
            -6.8621778488159180e-01 1.2071131169795990e-01</leafValues></_>
        <_>
          <internalNodes>
            0 -1 55 4.3123409152030945e-02</internalNodes>
          <leafValues>
            1.1807961016893387e-01 -7.4735671281814575e-01</leafValues></_>
        <_>
          <internalNodes>
            0 -1 76 -3.8224264979362488e-02</internalNodes>
          <leafValues>
            6.8053948879241943e-01 -1.6169312596321106e-01</leafValues></_>
        <_>
          <internalNodes>
            0 -1 47 1.1779574677348137e-02</internalNodes>
          <leafValues>
            -3.3626601099967957e-01 4.4210079312324524e-01</leafValues></_>
        <_>
          <internalNodes>
            0 -1 54 1.9066032022237778e-02</internalNodes>
          <leafValues>
            -1.8008293211460114e-01 5.3817421197891235e-01</leafValues></_>
        <_>
          <internalNodes>
            0 -1 1 6.0012396425008774e-02</internalNodes>
          <leafValues>
            -1.8880899250507355e-01 5.3959077596664429e-01</leafValues></_></weakClassifiers></_>
    <!-- stage 12 -->
    <_>
      <maxWeakCount>12</maxWeakCount>
      <stageThreshold>-9.7191780805587769e-01</stageThreshold>
      <weakClassifiers>
        <_>
          <internalNodes>
            0 -1 102 -8.9145787060260773e-03</internalNodes>
          <leafValues>
            4.6808511018753052e-01 -2.8617364168167114e-01</leafValues></_>
        <_>
          <internalNodes>
            0 -1 100 -8.6557138711214066e-03</internalNodes>
          <leafValues>
            5.4336977005004883e-01 -2.3359949886798859e-01</leafValues></_>
        <_>
          <internalNodes>
            0 -1 95 -3.2656665891408920e-02</internalNodes>
          <leafValues>
            6.6133588552474976e-01 -1.6835252940654755e-01</leafValues></_>
        <_>
          <internalNodes>
            0 -1 5 -3.0003644526004791e-02</internalNodes>
          <leafValues>
            6.2249976396560669e-01 -2.3440012335777283e-01</leafValues></_>
        <_>
          <internalNodes>
            0 -1 64 -5.0682775676250458e-02</internalNodes>
          <leafValues>
            -7.9019808769226074e-01 1.9688290357589722e-01</leafValues></_>
        <_>
          <internalNodes>
            0 -1 42 1.2190366163849831e-02</internalNodes>
          <leafValues>
            -1.8610653281211853e-01 5.5861514806747437e-01</leafValues></_>
        <_>
          <internalNodes>
            0 -1 32 -3.1746804714202881e-02</internalNodes>
          <leafValues>
            4.7672346234321594e-01 -2.7620312571525574e-01</leafValues></_>
        <_>
          <internalNodes>
            0 -1 41 -2.8109733015298843e-02</internalNodes>
          <leafValues>
            5.0589030981063843e-01 -2.0505417883396149e-01</leafValues></_>
        <_>
          <internalNodes>
            0 -1 8 2.6296503841876984e-02</internalNodes>
          <leafValues>
            -2.1654212474822998e-01 5.5530315637588501e-01</leafValues></_>
        <_>
          <internalNodes>
            0 -1 58 1.3136968482285738e-03</internalNodes>
          <leafValues>
            1.4427751302719116e-01 -9.4592165946960449e-01</leafValues></_>
        <_>
          <internalNodes>
            0 -1 19 -9.6817854791879654e-03</internalNodes>
          <leafValues>
            4.6652323007583618e-01 -2.5957426428794861e-01</leafValues></_>
        <_>
          <internalNodes>
            0 -1 58 -1.2537701986730099e-03</internalNodes>
          <leafValues>
            -9.3884229660034180e-01 1.3018231093883514e-01</leafValues></_></weakClassifiers></_>
    <!-- stage 13 -->
    <_>
      <maxWeakCount>13</maxWeakCount>
      <stageThreshold>-9.0907704830169678e-01</stageThreshold>
      <weakClassifiers>
        <_>
          <internalNodes>
            0 -1 56 -2.8118975460529327e-02</internalNodes>
          <leafValues>
            4.6841478347778320e-01 -3.1361931562423706e-01</leafValues></_>
        <_>
          <internalNodes>
            0 -1 74 1.5368794556707144e-03</internalNodes>
          <leafValues>
            -3.4152781963348389e-01 4.7541314363479614e-01</leafValues></_>
        <_>
          <internalNodes>
            0 -1 34 1.6759265214204788e-02</internalNodes>
          <leafValues>
            -1.8951979279518127e-01 5.1955455541610718e-01</leafValues></_>
        <_>
          <internalNodes>
            0 -1 16 -1.0217050090432167e-02</internalNodes>
          <leafValues>
            4.7552338242530823e-01 -2.4751521646976471e-01</leafValues></_>
        <_>
          <internalNodes>
            0 -1 21 -2.1970048546791077e-02</internalNodes>
          <leafValues>
            5.8239161968231201e-01 -1.8178603053092957e-01</leafValues></_>
        <_>
          <internalNodes>
            0 -1 24 2.0468655973672867e-02</internalNodes>
          <leafValues>
            1.5729714930057526e-01 -6.9493395090103149e-01</leafValues></_>
        <_>
          <internalNodes>
            0 -1 87 -3.2643228769302368e-03</internalNodes>
          <leafValues>
            4.6617832779884338e-01 -2.5854519009590149e-01</leafValues></_>
        <_>
          <internalNodes>
            0 -1 94 5.3912522271275520e-03</internalNodes>
          <leafValues>
            8.3447828888893127e-02 -9.7263389825820923e-01</leafValues></_>
        <_>
          <internalNodes>
            0 -1 20 8.4418477490544319e-03</internalNodes>
          <leafValues>
            -1.9732758402824402e-01 5.2244853973388672e-01</leafValues></_>
        <_>
          <internalNodes>
            0 -1 88 -3.2548452727496624e-03</internalNodes>
          <leafValues>
            4.7651237249374390e-01 -2.4220159649848938e-01</leafValues></_>
        <_>
          <internalNodes>
            0 -1 31 -1.0158823803067207e-02</internalNodes>
          <leafValues>
            5.3575032949447632e-01 -1.7654441297054291e-01</leafValues></_>
        <_>
          <internalNodes>
            0 -1 101 7.6174722053110600e-03</internalNodes>
          <leafValues>
            -1.9586630165576935e-01 5.8544677495956421e-01</leafValues></_>
        <_>
          <internalNodes>
            0 -1 96 4.3878541328012943e-03</internalNodes>
          <leafValues>
            -2.0646062493324280e-01 4.7591722011566162e-01</leafValues></_></weakClassifiers></_></stages>
  <features>
    <_>
      <rects>
        <_>
          0 7 6 4 -1.</_>
        <_>
          2 7 2 4 3.</_></rects>
      <tilted>0</tilted></_>
    <_>
      <rects>
        <_>
          1 5 6 9 -1.</_>
        <_>
          3 5 2 9 3.</_></rects>
      <tilted>0</tilted></_>
    <_>
      <rects>
        <_>
          2 3 6 6 -1.</_>
        <_>
          2 3 3 3 2.</_>
        <_>
          5 6 3 3 2.</_></rects>
      <tilted>0</tilted></_>
    <_>
      <rects>
        <_>
          2 7 3 5 -1.</_>
        <_>
          3 7 1 5 3.</_></rects>
      <tilted>0</tilted></_>
    <_>
      <rects>
        <_>
          2 7 3 6 -1.</_>
        <_>
          3 7 1 6 3.</_></rects>
      <tilted>0</tilted></_>
    <_>
      <rects>
        <_>
          2 11 6 6 -1.</_>
        <_>
          2 11 3 3 2.</_>
        <_>
          5 14 3 3 2.</_></rects>
      <tilted>0</tilted></_>
    <_>
      <rects>
        <_>
          2 12 6 4 -1.</_>
        <_>
          2 12 3 2 2.</_>
        <_>
          5 14 3 2 2.</_></rects>
      <tilted>0</tilted></_>
    <_>
      <rects>
        <_>
          2 13 8 4 -1.</_>
        <_>
          2 13 4 2 2.</_>
        <_>
          6 15 4 2 2.</_></rects>
      <tilted>0</tilted></_>
    <_>
      <rects>
        <_>
          3 0 6 8 -1.</_>
        <_>
          3 0 3 4 2.</_>
        <_>
          6 4 3 4 2.</_></rects>
      <tilted>0</tilted></_>
    <_>
      <rects>
        <_>
          3 3 4 4 -1.</_>
        <_>
          3 3 2 2 2.</_>
        <_>
          5 5 2 2 2.</_></rects>
      <tilted>0</tilted></_>
    <_>
      <rects>
        <_>
          3 4 4 6 -1.</_>
        <_>
          3 4 2 3 2.</_>
        <_>
          5 7 2 3 2.</_></rects>
      <tilted>0</tilted></_>
    <_>
      <rects>
        <_>
          3 5 6 1 -1.</_>
        <_>
          5 5 2 1 3.</_></rects>
      <tilted>0</tilted></_>
    <_>
      <rects>
        <_>
          3 5 13 10 -1.</_>
        <_>
          3 10 13 5 2.</_></rects>
      <tilted>0</tilted></_>
    <_>
      <rects>
        <_>
          3 9 8 6 -1.</_>
        <_>
          3 9 4 3 2.</_>
        <_>
          7 12 4 3 2.</_></rects>
      <tilted>0</tilted></_>
    <_>
      <rects>
        <_>
          3 10 6 4 -1.</_>
        <_>
          3 10 3 2 2.</_>
        <_>
          6 12 3 2 2.</_></rects>
      <tilted>0</tilted></_>
    <_>
      <rects>
        <_>
          3 11 4 3 -1.</_>
        <_>
          5 11 2 3 2.</_></rects>
      <tilted>0</tilted></_>
    <_>
      <rects>
        <_>
          3 12 6 2 -1.</_>
        <_>
          6 12 3 2 2.</_></rects>
      <tilted>0</tilted></_>
    <_>
      <rects>
        <_>
          3 13 8 4 -1.</_>
        <_>
          3 13 4 2 2.</_>
        <_>
          7 15 4 2 2.</_></rects>
      <tilted>0</tilted></_>
    <_>
      <rects>
        <_>
          3 13 15 2 -1.</_>
        <_>
          8 13 5 2 3.</_></rects>
      <tilted>0</tilted></_>
    <_>
      <rects>
        <_>
          4 3 4 4 -1.</_>
        <_>
          4 3 2 2 2.</_>
        <_>
          6 5 2 2 2.</_></rects>
      <tilted>0</tilted></_>
    <_>
      <rects>
        <_>
          4 4 4 4 -1.</_>
        <_>
          4 4 2 2 2.</_>
        <_>
          6 6 2 2 2.</_></rects>
      <tilted>0</tilted></_>
    <_>
      <rects>
        <_>
          4 4 6 6 -1.</_>
        <_>
          4 4 3 3 2.</_>
        <_>
          7 7 3 3 2.</_></rects>
      <tilted>0</tilted></_>
    <_>
      <rects>
        <_>
          4 4 12 1 -1.</_>
        <_>
          8 4 4 1 3.</_></rects>
      <tilted>0</tilted></_>
    <_>
      <rects>
        <_>
          4 5 4 6 -1.</_>
        <_>
          4 5 2 3 2.</_>
        <_>
          6 8 2 3 2.</_></rects>
      <tilted>0</tilted></_>
    <_>
      <rects>
        <_>
          4 5 5 8 -1.</_>
        <_>
          4 9 5 4 2.</_></rects>
      <tilted>0</tilted></_>
    <_>
      <rects>
        <_>
          4 6 4 8 -1.</_>
        <_>
          4 10 4 4 2.</_></rects>
      <tilted>0</tilted></_>
    <_>
      <rects>
        <_>
          4 8 3 3 -1.</_>
        <_>
          5 8 1 3 3.</_></rects>
      <tilted>0</tilted></_>
    <_>
      <rects>
        <_>
          4 8 2 3 -1.</_>
        <_>
          4 9 2 1 3.</_></rects>
      <tilted>0</tilted></_>
    <_>
      <rects>
        <_>
          4 9 3 2 -1.</_>
        <_>
          5 9 1 2 3.</_></rects>
      <tilted>0</tilted></_>
    <_>
      <rects>
        <_>
          4 9 4 6 -1.</_>
        <_>
          4 9 2 3 2.</_>
        <_>
          6 12 2 3 2.</_></rects>
      <tilted>0</tilted></_>
    <_>
      <rects>
        <_>
          4 9 6 6 -1.</_>
        <_>
          4 9 3 3 2.</_>
        <_>
          7 12 3 3 2.</_></rects>
      <tilted>0</tilted></_>
    <_>
      <rects>
        <_>
          4 11 2 4 -1.</_>
        <_>
          4 13 2 2 2.</_></rects>
      <tilted>0</tilted></_>
    <_>
      <rects>
        <_>
          4 12 11 4 -1.</_>
        <_>
          4 14 11 2 2.</_></rects>
      <tilted>0</tilted></_>
    <_>
      <rects>
        <_>
          4 13 12 2 -1.</_>
        <_>
          8 13 4 2 3.</_></rects>
      <tilted>0</tilted></_>
    <_>
      <rects>
        <_>
          4 14 12 1 -1.</_>
        <_>
          8 14 4 1 3.</_></rects>
      <tilted>0</tilted></_>
    <_>
      <rects>
        <_>
          5 3 10 12 -1.</_>
        <_>
          5 9 10 6 2.</_></rects>
      <tilted>0</tilted></_>
    <_>
      <rects>
        <_>
          5 4 4 6 -1.</_>
        <_>
          5 4 2 3 2.</_>
        <_>
          7 7 2 3 2.</_></rects>
      <tilted>0</tilted></_>
    <_>
      <rects>
        <_>
          5 4 9 6 -1.</_>
        <_>
          5 6 9 2 3.</_></rects>
      <tilted>0</tilted></_>
    <_>
      <rects>
        <_>
          5 4 10 6 -1.</_>
        <_>
          5 6 10 2 3.</_></rects>
      <tilted>0</tilted></_>
    <_>
      <rects>
        <_>
          5 7 6 8 -1.</_>
        <_>
          8 7 3 8 2.</_></rects>
      <tilted>0</tilted></_>
    <_>
      <rects>
        <_>
          5 7 10 8 -1.</_>
        <_>
          10 7 5 8 2.</_></rects>
      <tilted>0</tilted></_>
    <_>
      <rects>
        <_>
          5 9 10 6 -1.</_>
        <_>
          5 11 10 2 3.</_></rects>
      <tilted>0</tilted></_>
    <_>
      <rects>
        <_>
          5 12 3 4 -1.</_>
        <_>
          5 14 3 2 2.</_></rects>
      <tilted>0</tilted></_>
    <_>
      <rects>
        <_>
          6 1 7 6 -1.</_>
        <_>
          6 3 7 2 3.</_></rects>
      <tilted>0</tilted></_>
    <_>
      <rects>
        <_>
          6 4 4 10 -1.</_>
        <_>
          8 4 2 10 2.</_></rects>
      <tilted>0</tilted></_>
    <_>
      <rects>
        <_>
          6 4 9 6 -1.</_>
        <_>
          6 6 9 2 3.</_></rects>
      <tilted>0</tilted></_>
    <_>
      <rects>
        <_>
          6 5 8 10 -1.</_>
        <_>
          10 5 4 10 2.</_></rects>
      <tilted>0</tilted></_>
    <_>
      <rects>
        <_>
          6 6 7 4 -1.</_>
        <_>
          6 8 7 2 2.</_></rects>
      <tilted>0</tilted></_>
    <_>
      <rects>
        <_>
          6 8 8 9 -1.</_>
        <_>
          6 11 8 3 3.</_></rects>
      <tilted>0</tilted></_>
    <_>
      <rects>
        <_>
          6 8 9 9 -1.</_>
        <_>
          6 11 9 3 3.</_></rects>
      <tilted>0</tilted></_>
    <_>
      <rects>
        <_>
          6 10 7 6 -1.</_>
        <_>
          6 12 7 2 3.</_></rects>
      <tilted>0</tilted></_>
    <_>
      <rects>
        <_>
          6 14 9 2 -1.</_>
        <_>
          6 15 9 1 2.</_></rects>
      <tilted>0</tilted></_>
    <_>
      <rects>
        <_>
          7 2 6 3 -1.</_>
        <_>
          7 3 6 1 3.</_></rects>
      <tilted>0</tilted></_>
    <_>
      <rects>
        <_>
          7 2 6 9 -1.</_>
        <_>
          7 5 6 3 3.</_></rects>
      <tilted>0</tilted></_>
    <_>
      <rects>
        <_>
          7 3 7 6 -1.</_>
        <_>
          7 5 7 2 3.</_></rects>
      <tilted>0</tilted></_>
    <_>
      <rects>
        <_>
          7 4 5 14 -1.</_>
        <_>
          7 11 5 7 2.</_></rects>
      <tilted>0</tilted></_>
    <_>
      <rects>
        <_>
          7 5 6 6 -1.</_>
        <_>
          7 8 6 3 2.</_></rects>
      <tilted>0</tilted></_>
    <_>
      <rects>
        <_>
          7 6 4 1 -1.</_>
        <_>
          9 6 2 1 2.</_></rects>
      <tilted>0</tilted></_>
    <_>
      <rects>
        <_>
          7 6 6 1 -1.</_>
        <_>
          9 6 2 1 3.</_></rects>
      <tilted>0</tilted></_>
    <_>
      <rects>
        <_>
          7 6 6 1 -1.</_>
        <_>
          10 6 3 1 2.</_></rects>
      <tilted>0</tilted></_>
    <_>
      <rects>
        <_>
          7 9 7 4 -1.</_>
        <_>
          7 11 7 2 2.</_></rects>
      <tilted>0</tilted></_>
    <_>
      <rects>
        <_>
          7 13 7 6 -1.</_>
        <_>
          7 15 7 2 3.</_></rects>
      <tilted>0</tilted></_>
    <_>
      <rects>
        <_>
          8 2 5 3 -1.</_>
        <_>
          8 3 5 1 3.</_></rects>
      <tilted>0</tilted></_>
    <_>
      <rects>
        <_>
          8 3 4 2 -1.</_>
        <_>
          8 4 4 1 2.</_></rects>
      <tilted>0</tilted></_>
    <_>
      <rects>
        <_>
          8 4 8 12 -1.</_>
        <_>
          8 10 8 6 2.</_></rects>
      <tilted>0</tilted></_>
    <_>
      <rects>
        <_>
          8 5 4 2 -1.</_>
        <_>
          10 5 2 2 2.</_></rects>
      <tilted>0</tilted></_>
    <_>
      <rects>
        <_>
          8 6 6 1 -1.</_>
        <_>
          11 6 3 1 2.</_></rects>
      <tilted>0</tilted></_>
    <_>
      <rects>
        <_>
          8 8 1 3 -1.</_>
        <_>
          8 9 1 1 3.</_></rects>
      <tilted>0</tilted></_>
    <_>
      <rects>
        <_>
          8 12 4 2 -1.</_>
        <_>
          10 12 2 2 2.</_></rects>
      <tilted>0</tilted></_>
    <_>
      <rects>
        <_>
          8 13 3 1 -1.</_>
        <_>
          9 13 1 1 3.</_></rects>
      <tilted>0</tilted></_>
    <_>
      <rects>
        <_>
          8 13 4 1 -1.</_>
        <_>
          10 13 2 1 2.</_></rects>
      <tilted>0</tilted></_>
    <_>
      <rects>
        <_>
          8 14 4 3 -1.</_>
        <_>
          8 15 4 1 3.</_></rects>
      <tilted>0</tilted></_>
    <_>
      <rects>
        <_>
          9 5 2 2 -1.</_>
        <_>
          9 6 2 1 2.</_></rects>
      <tilted>0</tilted></_>
    <_>
      <rects>
        <_>
          9 5 3 2 -1.</_>
        <_>
          9 6 3 1 2.</_></rects>
      <tilted>0</tilted></_>
    <_>
      <rects>
        <_>
          9 6 1 4 -1.</_>
        <_>
          9 8 1 2 2.</_></rects>
      <tilted>0</tilted></_>
    <_>
      <rects>
        <_>
          9 6 6 10 -1.</_>
        <_>
          12 6 3 10 2.</_></rects>
      <tilted>0</tilted></_>
    <_>
      <rects>
        <_>
          9 8 8 6 -1.</_>
        <_>
          9 8 4 3 2.</_>
        <_>
          13 11 4 3 2.</_></rects>
      <tilted>0</tilted></_>
    <_>
      <rects>
        <_>
          9 12 4 1 -1.</_>
        <_>
          11 12 2 1 2.</_></rects>
      <tilted>0</tilted></_>
    <_>
      <rects>
        <_>
          9 12 2 2 -1.</_>
        <_>
          9 13 2 1 2.</_></rects>
      <tilted>0</tilted></_>
    <_>
      <rects>
        <_>
          10 9 6 6 -1.</_>
        <_>
          10 9 3 3 2.</_>
        <_>
          13 12 3 3 2.</_></rects>
      <tilted>0</tilted></_>
    <_>
      <rects>
        <_>
          10 12 1 2 -1.</_>
        <_>
          10 13 1 1 2.</_></rects>
      <tilted>0</tilted></_>
    <_>
      <rects>
        <_>
          11 9 1 3 -1.</_>
        <_>
          11 10 1 1 3.</_></rects>
      <tilted>0</tilted></_>
    <_>
      <rects>
        <_>
          12 4 4 2 -1.</_>
        <_>
          12 4 2 1 2.</_>
        <_>
          14 5 2 1 2.</_></rects>
      <tilted>0</tilted></_>
    <_>
      <rects>
        <_>
          12 4 4 4 -1.</_>
        <_>
          12 4 2 2 2.</_>
        <_>
          14 6 2 2 2.</_></rects>
      <tilted>0</tilted></_>
    <_>
      <rects>
        <_>
          12 5 4 6 -1.</_>
        <_>
          12 5 2 3 2.</_>
        <_>
          14 8 2 3 2.</_></rects>
      <tilted>0</tilted></_>
    <_>
      <rects>
        <_>
          12 10 2 6 -1.</_>
        <_>
          12 12 2 2 3.</_></rects>
      <tilted>0</tilted></_>
    <_>
      <rects>
        <_>
          12 10 4 4 -1.</_>
        <_>
          12 10 2 2 2.</_>
        <_>
          14 12 2 2 2.</_></rects>
      <tilted>0</tilted></_>
    <_>
      <rects>
        <_>
          13 4 1 6 -1.</_>
        <_>
          13 6 1 2 3.</_></rects>
      <tilted>0</tilted></_>
    <_>
      <rects>
        <_>
          13 5 4 1 -1.</_>
        <_>
          15 5 2 1 2.</_></rects>
      <tilted>0</tilted></_>
    <_>
      <rects>
        <_>
          13 6 6 7 -1.</_>
        <_>
          15 6 2 7 3.</_></rects>
      <tilted>0</tilted></_>
    <_>
      <rects>
        <_>
          13 6 4 6 -1.</_>
        <_>
          13 9 4 3 2.</_></rects>
      <tilted>0</tilted></_>
    <_>
      <rects>
        <_>
          13 7 4 6 -1.</_>
        <_>
          13 10 4 3 2.</_></rects>
      <tilted>0</tilted></_>
    <_>
      <rects>
        <_>
          13 13 1 3 -1.</_>
        <_>
          13 14 1 1 3.</_></rects>
      <tilted>0</tilted></_>
    <_>
      <rects>
        <_>
          14 5 2 4 -1.</_>
        <_>
          14 5 1 2 2.</_>
        <_>
          15 7 1 2 2.</_></rects>
      <tilted>0</tilted></_>
    <_>
      <rects>
        <_>
          14 7 2 3 -1.</_>
        <_>
          14 8 2 1 3.</_></rects>
      <tilted>0</tilted></_>
    <_>
      <rects>
        <_>
          14 7 4 12 -1.</_>
        <_>
          14 7 2 6 2.</_>
        <_>
          16 13 2 6 2.</_></rects>
      <tilted>0</tilted></_>
    <_>
      <rects>
        <_>
          14 8 3 2 -1.</_>
        <_>
          15 8 1 2 3.</_></rects>
      <tilted>0</tilted></_>
    <_>
      <rects>
        <_>
          14 8 3 3 -1.</_>
        <_>
          15 8 1 3 3.</_></rects>
      <tilted>0</tilted></_>
    <_>
      <rects>
        <_>
          14 8 3 4 -1.</_>
        <_>
          15 8 1 4 3.</_></rects>
      <tilted>0</tilted></_>
    <_>
      <rects>
        <_>
          15 5 2 9 -1.</_>
        <_>
          16 5 1 9 2.</_></rects>
      <tilted>0</tilted></_>
    <_>
      <rects>
        <_>
          15 8 3 4 -1.</_>
        <_>
          16 8 1 4 3.</_></rects>
      <tilted>0</tilted></_>
    <_>
      <rects>
        <_>
          15 8 2 5 -1.</_>
        <_>
          16 8 1 5 2.</_></rects>
      <tilted>0</tilted></_>
    <_>
      <rects>
        <_>
          16 8 2 5 -1.</_>
        <_>
          17 8 1 5 2.</_></rects>
      <tilted>0</tilted></_></features></cascade>
</opencv_storage>
